\data\
ngram 1=31
ngram 2=102
ngram 3=127
ngram 4=135

\1-grams:
-2.033935	<unk>	0
0	<s>	-0.14309101
-1.6031969	<	-0.14309101
-1.8492335	اکس	-0.14309101
-1.6031969	ام	-0.0880329
-1.4591882	ال	-0.14309101
-1.6031969	وی	-0.14309104
-0.9462689	ایی	-0.29568475
-1.4591882	آر	-0.12582853
-1.3512256	اس	-0.12582853
-1.1310369	آی	-0.08803293
-1.1928011	او	-0.11863536
-1.4591882	ان	-0.14309101
-1.5586078	=	-0.14309101
-1.8492335	یک	-0.14309101
-1.8492335	٫	-0.14309101
-1.8492335	صفر	-0.14309101
-1.1928011	سی	-0.32768217
-1.3512256	دی	-0.58463615
-1.5586078	جی	-0.14309101
-1.6031969	یو	-0.0880329
-1.3512256	تی	-0.11469005
-1.8492335	اف	-0.14309101
-1.8492335	هشت	-0.14309101
-1.4591882	><	-0.109226115
-1.6031969	>	-0.14309101
-1.2648292	ای	-0.11863536
-1.8492335	دبلیو	-0.14309101
-1.5586078	وای	-0.14309101
-1.5586078	بی	-0.14309101
-1.8492335	اچ	-0.14309101

\2-grams:
-0.5248561	<s> <	-0.04830469
-1.2363048	ان <	-0.04830469
-1.2734972	دی <	-0.04830469
-1.0949938	< اکس	-0.04830469
-1.0549705	< ام	-0.04830469
-0.5248561	اکس ام	-0.04830469
-1.1218786	>< ام	-0.04830469
-0.9138823	ام ال	-0.04830469
-1.2670374	آر ال	-0.04830469
-1.2250903	آی ال	-0.04830469
-0.78162664	بی ال	-0.04830469
-1.1303236	ال وی	-0.04830469
-1.3303775	آر وی	-0.04830469
-1.228599	ای وی	-0.04830469
-0.7391709	ام ایی	-0.09244317
-0.8615606	ال ایی	-0.04830469
-0.757036	وی ایی	-0.04830469
-0.9477914	آر ایی	-0.04830469
-0.9477914	اس ایی	-0.04830469
-0.9080003	آی ایی	-0.04830469
-0.44116586	صفر ایی	-0.04830469
-1.037391	سی ایی	-0.04830469
-0.17027856	دی ایی	-0.065425634
-0.6541289	جی ایی	-0.04830469
-0.8478589	>< ایی	-0.09244317
-0.44116586	دبلیو ایی	-0.04830469
-0.60967517	ایی آر	-0.04830469
-1.2759349	آر آر	-0.04830469
-1.1872962	او آر	-0.04830469
-0.9138823	یو آر	-0.04830469
-1.0546315	ال اس	-0.04830469
-0.7171657	ایی اس	-0.077226445
-1.2117704	آر اس	-0.04830469
-1.2195951	اس اس	-0.04830469
-1.1782206	آی اس	-0.04830469
-0.83338517	وی آی	-0.04830469
-1.2732571	ایی آی	-0.04830469
-1.0787176	اس آی	-0.04830469
-1.0301397	ان آی	-0.04830469
-1.1802652	دی آی	-0.04830469
-0.98475015	تی آی	-0.04830469
-1.023144	ای آی	-0.09244317
-0.47638762	اچ آی	-0.04830469
-0.99019414	ال او	-0.04830469
-1.1187041	آر او	-0.04830469
-1.1187041	اس او	-0.04830469
-1.0843321	آی او	-0.09244317
-1.0642738	ان او	-0.04830469
-0.35537088	سی او	0
-0.7293349	وای او	-0.04830469
-1.4755876	ایی ان	-0.04830469
-1.2670374	اس ان	-0.04830469
-1.2340671	آی ان	-0.04830469
-1.1769494	او ان	-0.04830469
-1.2220299	ان =	-0.04830469
-0.7952681	جی =	-0.04830469
-0.82237935	= یک	-0.04830469
-0.53628606	یک ٫	-0.04830469
-0.53628606	٫ صفر	-0.04830469
-0.9343506	< سی	-0.04830469
-1.077954	آی سی	-0.04830469
-1.0510181	او سی	-0.04830469
-1.0642738	ان سی	-0.04830469
-1.1532537	سی سی	-0.04830469
-0.974589	>< سی	-0.04830469
-1.0510181	ای سی	-0.04830469
-0.9904863	< دی	-0.04830469
-1.4082798	ایی دی	-0.04830469
-1.2117704	اس دی	-0.04830469
-1.1307945	او دی	-0.04830469
-1.0420194	>< دی	-0.04830469
-1.2220299	ان جی	-0.04830469
-1.2137722	ای جی	-0.04830469
-1.228599	او یو	-0.04830469
-0.80055666	= یو	-0.04830469
-0.80055666	بی یو	-0.04830469
-1.4082798	ایی تی	-0.04830469
-1.1307945	او تی	-0.04830469
-0.89865816	یو تی	-0.04830469
-1.0915782	تی تی	-0.04830469
-1.1307945	ای تی	-0.04830469
-1.2392023	تی اف	-0.04830469
-0.53628606	اف هشت	-0.04830469
-1.4755876	ایی ><	-0.04830469
-1.2670374	آر ><	-0.04830469
-1.2670374	اس ><	-0.04830469
-0.51471996	هشت ><	-0.04830469
-1.5453291	ایی >	-0.09244317
-1.3303775	آر >	-0.04830469
-1.3303775	اس >	-0.04830469
-1.0212188	ال ای	-0.04830469
-0.87726486	وی ای	-0.04830469
-1.162749	اس ای	-0.04830469
-1.1827257	سی ای	-0.04830469
-1.0620348	تی ای	-0.04830469
-0.7460755	> ای	-0.04830469
-0.82237935	> دبلیو	-0.04830469
-1.3120183	آر وای	-0.04830469
-1.2220299	ان وای	-0.04830469
-1.2137722	ای بی	-0.04830469
-0.7952681	وای بی	-0.04830469
-1.2392023	تی اچ	0

\3-grams:
-0.98064166	او ان <	-0.30103
-0.81551296	ایی دی <	-0.30103
-0.7516377	<s> < اکس	-0.30103
-0.8811811	دی < ام	-0.30103
-0.42891467	< اکس ام	-0.30103
-0.92005455	ایی >< ام	-0.30103
-0.6688558	اکس ام ال	-0.30103
-0.81348926	یو آر ال	-0.30103
-0.62003326	ای آی ال	-0.30103
-0.5965408	ای بی ال	-0.30103
-0.7656308	ام ال وی	-0.30103
-1.1666653	ایی آر وی	-0.30103
-0.9767976	تی ای وی	-0.30103
-0.5712343	< ام ایی	-0.30103
-0.5712343	>< ام ایی	-0.30103
-0.6414404	بی ال ایی	-0.30103
-0.5820048	ال وی ایی	-0.30103
-0.89544886	ایی آر ایی	-0.30103
-0.86649084	اس اس ایی	-0.30103
-0.66585225	ان آی ایی	-0.30103
-0.3672881	٫ صفر ایی	-0.30103
-0.7273328	آی سی ایی	-0.30103
-0.7273328	سی سی ایی	-0.30103
-0.14886911	< دی ایی	-0.30103
-0.14886911	اس دی ایی	-0.30103
-0.18232886	او دی ایی	-0.30103
-0.14886911	>< دی ایی	-0.30103
-0.5175917	ای جی ایی	-0.30103
-0.6340018	اس >< ایی	-0.30103
-0.6340018	هشت >< ایی	-0.30103
-0.3672881	> دبلیو ایی	-0.30103
-0.48803735	وی ایی آر	-0.30103
-0.48803735	اس ایی آر	-0.30103
-0.40861848	>< ایی آر	-0.30103
-0.48803735	دبلیو ایی آر	-0.30103
-1.132451	ایی آر آر	-0.30103
-1.083621	او آر آر	-0.30103
-0.7867665	آر او آر	-0.30103
-0.7867665	اس او آر	-0.30103
-0.6688558	او یو آر	-0.30103
-0.88097787	آی ال اس	-0.30103
-0.45998287	ام ایی اس	-0.30103
-0.5577272	آر ایی اس	-0.30103
-0.6492937	سی ایی اس	-0.30103
-1.0901212	ایی آر اس	-0.30103
-0.74883306	ایی اس اس	-0.30103
-0.97226274	آی اس اس	-0.30103
-0.95082474	ایی آی اس	-0.30103
-0.78351593	اچ آی اس	-0.30103
-0.62602764	آر وی آی	-0.30103
-0.81543815	ال ایی آی	-0.30103
-0.9986005	سی ایی آی	-0.30103
-0.74495864	آر اس آی	-0.30103
-0.86612135	ایی ان آی	-0.30103
-0.9519072	او دی آی	-0.30103
-0.70347863	ای تی آی	-0.30103
-0.7210326	وی ای آی	-0.30103
-0.8618175	تی ای آی	-0.30103
-0.39360464	تی اچ آی	-0.30103
-0.7060189	آر ال او	-0.30103
-0.9182671	آر آر او	-0.30103
-1.0053421	ایی اس او	-0.30103
-0.7472793	اس آی او	-0.30103
-0.7472793	تی آی او	-0.30103
-0.73890764	اس ان او	-0.30103
-0.30101675	< سی او	-0.30103
-0.30101675	ان سی او	-0.30103
-0.30101675	>< سی او	-0.30103
-0.5652295	ان وای او	-0.30103
-0.869045	صفر ایی ان	-0.30103
-1.3025463	دی ایی ان	-0.30103
-0.99563265	آی اس ان	-0.30103
-0.97952884	ایی آی ان	-0.30103
-0.802835	دی آی ان	-0.30103
-0.609935	آی او ان	-0.30103
-0.97349364	او ان =	-0.30103
-0.6044588	ان جی =	-0.30103
-0.6198844	ان = یک	-0.30103
-0.43708378	= یک ٫	-0.30103
-0.43708378	یک ٫ صفر	-0.30103
-0.8049139	دی < سی	-0.30103
-0.7446417	وی آی سی	-0.30103
-0.73325115	ال او سی	-0.30103
-0.88673604	ایی ان سی	-0.30103
-0.7743473	ای سی سی	-0.30103
-0.6986916	آر >< سی	-0.30103
-0.73325115	> ای سی	-0.30103
-0.7061548	ان < دی	-0.30103
-0.85321903	آی ایی دی	-0.30103
-1.0456016	اس اس دی	-0.30103
-1.1307945	سی او دی	-0.30103
-0.8733686	ایی >< دی	-0.30103
-0.97349364	آی ان جی	-0.30103
-0.796002	اس ای جی	-0.30103
-0.8010148	وای او یو	-0.30103
-0.60750043	جی = یو	-0.30103
-0.60750043	وای بی یو	-0.30103
-0.9574707	دی ایی تی	-0.30103
-0.76581264	ان او تی	-0.30103
-0.6610409	= یو تی	-0.30103
-0.6610409	بی یو تی	-0.30103
-0.902761	یو تی تی	-0.30103
-0.76581264	سی ای تی	-0.30103
-0.9820782	یو تی اف	-0.30103
-0.43708378	تی اف هشت	-0.30103
-1.3025463	دی ایی ><	-0.30103
-1.0832216	جی ایی ><	-0.30103
-1.0784861	او آر ><	-0.30103
-0.99563265	ال اس ><	-0.30103
-0.42161924	اف هشت ><	-0.30103
-1.341444	دی ایی >	-0.30103
-1.1072302	جی ایی >	-0.30103
-1.114066	او آر >	-0.30103
-1.0248201	ال اس >	-0.30103
-0.8606284	آی ال ای	-0.30103
-0.6498341	ای وی ای	-0.30103
-1.0150328	اس اس ای	-0.30103
-0.7851349	او سی ای	-0.30103
-0.73795915	ایی تی ای	-0.30103
-0.73795915	او تی ای	-0.30103
-0.47267032	ایی > ای	-0.30103
-0.6198844	اس > دبلیو	-0.30103
-1.016596	آر آر وای	-0.30103
-0.97349364	آی ان وای	-0.30103
-0.796002	ال ای بی	-0.30103
-0.6044588	آر وای بی	-0.30103
-0.8045305	تی تی اچ	0

\4-grams:
-0.51959187	آی او ان <
-0.23922782	آی ایی دی <
-0.5006789	ایی دی < ام
-0.16352876	<s> < اکس ام
-0.25173002	دی ایی >< ام
-0.21668246	< اکس ام ال
-0.23895884	او یو آر ال
-0.20765562	وی ای آی ال
-0.20765562	تی ای آی ال
-0.2030105	ال ای بی ال
-0.23227234	اکس ام ال وی
-0.27240613	اس ایی آر وی
-0.25747603	او تی ای وی
-0.19777729	دی < ام ایی
-0.19777729	ایی >< ام ایی
-0.21171556	ای بی ال ایی
-0.20003416	ام ال وی ایی
-0.2490218	دبلیو ایی آر ایی
-0.24565521	آی اس اس ایی
-0.21615076	ایی ان آی ایی
-0.14592133	یک ٫ صفر ایی
-0.22644909	وی آی سی ایی
-0.22644909	ای سی سی ایی
-0.0680868	ان < دی ایی
-0.0680868	اس اس دی ایی
-0.17919883	سی او دی ایی
-0.0680868	ایی >< دی ایی
-0.18586084	اس ای جی ایی
-0.21032315	ال اس >< ایی
-0.21032315	اف هشت >< ایی
-0.14592133	اس > دبلیو ایی
-0.17879465	ال وی ایی آر
-0.17879465	اس اس ایی آر
-0.15792628	اس >< ایی آر
-0.15792628	هشت >< ایی آر
-0.17879465	> دبلیو ایی آر
-0.27014148	>< ایی آر آر
-0.2666078	اس او آر آر
-0.23530354	آر آر او آر
-0.23530354	ایی اس او آر
-0.21668246	وای او یو آر
-0.39892054	ای آی ال اس
-0.17174286	< ام ایی اس
-0.17174286	>< ام ایی اس
-0.19488397	ایی آر ایی اس
-0.21316467	سی سی ایی اس
-0.26709968	وی ایی آر اس
-0.22977178	ام ایی اس اس
-0.22977178	سی ایی اس اس
-0.25704128	اچ آی اس اس
-0.2549295	سی ایی آی اس
-0.23484556	تی اچ آی اس
-0.20880887	ایی آر وی آی
-0.23921788	بی ال ایی آی
-0.25950992	آی سی ایی آی
-0.22918324	ایی آر اس آی
-0.24561097	دی ایی ان آی
-0.65262747	سی او دی آی
-0.22259697	سی ای تی آی
-0.2254489	ای وی ای آی
-0.24509314	ایی تی ای آی
-0.15365885	تی تی اچ آی
-0.22301565	یو آر ال او
-0.25153786	ایی آر آر او
-0.26012027	آر ایی اس او
-0.22953625	آر اس آی او
-0.22953625	ای تی آی او
-0.22825517	آی اس ان او
-0.124934316	دی < سی او
-0.124934316	ایی ان سی او
-0.124934316	آر >< سی او
-0.19649976	آی ان وای او
-0.24596022	٫ صفر ایی ان
-0.27991277	اس دی ایی ان
-0.25923848	ایی آی اس ان
-0.25773594	ال ایی آی ان
-0.23752473	او دی آی ان
-0.20568357	اس آی او ان
-0.20568357	تی آی او ان
-0.51834714	آی او ان =
-0.20459871	آی ان جی =
-0.20762682	او ان = یک
-0.16573057	ان = یک ٫
-0.16573057	= یک ٫ صفر
-0.48365885	ایی دی < سی
-0.22913489	آر وی آی سی
-0.22737764	آر ال او سی
-0.24802968	صفر ایی ان سی
-0.23353775	> ای سی سی
-0.22180237	او آر >< سی
-0.22737764	ایی > ای سی
-0.22303802	او ان < دی
-0.24404491	ان آی ایی دی
-0.53015417	ایی اس اس دی
-0.27002755	< سی او دی
-0.27002755	ان سی او دی
-0.27002755	>< سی او دی
-0.24647287	جی ایی >< دی
-0.25715965	دی آی ان جی
-0.23658885	اس اس ای جی
-0.23727664	ان وای او یو
-0.20520262	ان جی = یو
-0.20520262	آر وای بی یو
-0.25559425	< دی ایی تی
-0.25559425	>< دی ایی تی
-0.23229896	اس ان او تی
-0.21529272	جی = یو تی
-0.21529272	وای بی یو تی
-0.24984089	بی یو تی تی
-0.23229896	او سی ای تی
-0.25797716	= یو تی اف
-0.16573057	یو تی اف هشت
-0.56080496	او دی ایی ><
-0.5356881	ای جی ایی ><
-0.53501385	آر او آر ><
-0.52214783	آی ال اس ><
-0.16153675	تی اف هشت ><
-0.5641898	او دی ایی >
-0.539011	ای جی ایی >
-0.53992844	آر او آر >
-0.5269182	آی ال اس >
-0.62785035	ای آی ال ای
-0.21326362	تی ای وی ای
-0.52534837	ایی اس اس ای
-0.23507403	ال او سی ای
-0.22810869	دی ایی تی ای
-0.22810869	ان او تی ای
-0.17497422	دی ایی > ای
-0.17497422	جی ایی > ای
-0.20762682	ال اس > دبلیو
-0.26112008	او آر آر وای
-0.25715965	ایی آی ان وای
-0.23658885	آی ال ای بی
-0.20459871	آر آر وای بی
-0.23775496	یو تی تی اچ

\end\
